FANN_FLO_2.1
num_layers=3
learning_rate=0.700000
connection_rate=1.000000
network_type=0
learning_momentum=0.000000
training_algorithm=3
train_error_function=1
train_stop_function=0
cascade_output_change_fraction=0.010000
quickprop_decay=-0.000100
quickprop_mu=1.750000
rprop_increase_factor=1.200000
rprop_decrease_factor=0.500000
rprop_delta_min=0.000000
rprop_delta_max=50.000000
rprop_delta_zero=0.100000
cascade_output_stagnation_epochs=12
cascade_candidate_change_fraction=0.010000
cascade_candidate_stagnation_epochs=12
cascade_max_out_epochs=150
cascade_min_out_epochs=50
cascade_max_cand_epochs=150
cascade_min_cand_epochs=50
cascade_num_candidate_groups=2
bit_fail_limit=3.49999994039535522461e-01
cascade_candidate_limit=1.00000000000000000000e+03
cascade_weight_multiplier=4.00000005960464477539e-01
cascade_activation_functions_count=10
cascade_activation_functions=3 5 7 8 10 11 14 15 16 17 
cascade_activation_steepnesses_count=4
cascade_activation_steepnesses=2.50000000000000000000e-01 5.00000000000000000000e-01 7.50000000000000000000e-01 1.00000000000000000000e+00 
layer_sizes=34 17 34 
scale_included=0
neurons (num_inputs, activation_function, activation_steepness)=(0, 0, 0.00000000000000000000e+00) (0, 0, 0.00000000000000000000e+00) (0, 0, 0.00000000000000000000e+00) (0, 0, 0.00000000000000000000e+00) (0, 0, 0.00000000000000000000e+00) (0, 0, 0.00000000000000000000e+00) (0, 0, 0.00000000000000000000e+00) (0, 0, 0.00000000000000000000e+00) (0, 0, 0.00000000000000000000e+00) (0, 0, 0.00000000000000000000e+00) (0, 0, 0.00000000000000000000e+00) (0, 0, 0.00000000000000000000e+00) (0, 0, 0.00000000000000000000e+00) (0, 0, 0.00000000000000000000e+00) (0, 0, 0.00000000000000000000e+00) (0, 0, 0.00000000000000000000e+00) (0, 0, 0.00000000000000000000e+00) (0, 0, 0.00000000000000000000e+00) (0, 0, 0.00000000000000000000e+00) (0, 0, 0.00000000000000000000e+00) (0, 0, 0.00000000000000000000e+00) (0, 0, 0.00000000000000000000e+00) (0, 0, 0.00000000000000000000e+00) (0, 0, 0.00000000000000000000e+00) (0, 0, 0.00000000000000000000e+00) (0, 0, 0.00000000000000000000e+00) (0, 0, 0.00000000000000000000e+00) (0, 0, 0.00000000000000000000e+00) (0, 0, 0.00000000000000000000e+00) (0, 0, 0.00000000000000000000e+00) (0, 0, 0.00000000000000000000e+00) (0, 0, 0.00000000000000000000e+00) (0, 0, 0.00000000000000000000e+00) (0, 0, 0.00000000000000000000e+00) (34, 5, 5.00000000000000000000e-01) (34, 5, 5.00000000000000000000e-01) (34, 5, 5.00000000000000000000e-01) (34, 5, 5.00000000000000000000e-01) (34, 5, 5.00000000000000000000e-01) (34, 5, 5.00000000000000000000e-01) (34, 5, 5.00000000000000000000e-01) (34, 5, 5.00000000000000000000e-01) (34, 5, 5.00000000000000000000e-01) (34, 5, 5.00000000000000000000e-01) (34, 5, 5.00000000000000000000e-01) (34, 5, 5.00000000000000000000e-01) (34, 5, 5.00000000000000000000e-01) (34, 5, 5.00000000000000000000e-01) (34, 5, 5.00000000000000000000e-01) (34, 5, 5.00000000000000000000e-01) (0, 5, 0.00000000000000000000e+00) (17, 3, 5.00000000000000000000e-01) (17, 3, 5.00000000000000000000e-01) (17, 3, 5.00000000000000000000e-01) (17, 3, 5.00000000000000000000e-01) (17, 3, 5.00000000000000000000e-01) (17, 3, 5.00000000000000000000e-01) (17, 3, 5.00000000000000000000e-01) (17, 3, 5.00000000000000000000e-01) (17, 3, 5.00000000000000000000e-01) (17, 3, 5.00000000000000000000e-01) (17, 3, 5.00000000000000000000e-01) (17, 3, 5.00000000000000000000e-01) (17, 3, 5.00000000000000000000e-01) (17, 3, 5.00000000000000000000e-01) (17, 3, 5.00000000000000000000e-01) (17, 3, 5.00000000000000000000e-01) (17, 3, 5.00000000000000000000e-01) (17, 3, 5.00000000000000000000e-01) (17, 3, 5.00000000000000000000e-01) (17, 3, 5.00000000000000000000e-01) (17, 3, 5.00000000000000000000e-01) (17, 3, 5.00000000000000000000e-01) (17, 3, 5.00000000000000000000e-01) (17, 3, 5.00000000000000000000e-01) (17, 3, 5.00000000000000000000e-01) (17, 3, 5.00000000000000000000e-01) (17, 3, 5.00000000000000000000e-01) (17, 3, 5.00000000000000000000e-01) (17, 3, 5.00000000000000000000e-01) (17, 3, 5.00000000000000000000e-01) (17, 3, 5.00000000000000000000e-01) (17, 3, 5.00000000000000000000e-01) (17, 3, 5.00000000000000000000e-01) (0, 3, 0.00000000000000000000e+00) 
connections (connected_to_neuron, weight)=(0, 1.03052520751953125000e+00) (1, 1.13735353946685791016e+00) (2, 1.02814137935638427734e+00) (3, 9.07216429710388183594e-01) (4, 1.16874086856842041016e+00) (5, 7.36433714628219604492e-02) (6, -8.35428312420845031738e-02) (7, 1.07243275642395019531e+00) (8, 1.02957415580749511719e+00) (9, 1.06814396381378173828e+00) (10, 8.89383316040039062500e-01) (11, 9.57734823226928710938e-01) (12, 9.11194026470184326172e-01) (13, 1.05027604103088378906e+00) (14, 1.04389142990112304688e+00) (15, 1.03518104553222656250e+00) (16, 1.06394875049591064453e+00) (17, 1.03678059577941894531e+00) (18, 9.90996599197387695312e-01) (19, 8.84912848472595214844e-01) (20, 9.89219605922698974609e-01) (21, -3.14495027065277099609e-01) (22, -3.49108755588531494141e-01) (23, -2.85915195941925048828e-01) (24, -3.28488379716873168945e-01) (25, -2.70659416913986206055e-01) (26, -2.99698740243911743164e-01) (27, 1.15194475650787353516e+00) (28, -9.62757468223571777344e-02) (29, 5.19703142344951629639e-02) (30, 9.99345302581787109375e-01) (31, 1.17814078927040100098e-01) (32, 8.89404475688934326172e-01) (33, 9.68983650207519531250e-01) (0, 3.94019484519958496094e-01) (1, 1.42944559454917907715e-01) (2, 3.90844643115997314453e-02) (3, 1.52535811066627502441e-01) (4, 1.45389974117279052734e-01) (5, -7.19880908727645874023e-02) (6, 7.21363127231597900391e-02) (7, 5.69947585463523864746e-02) (8, 9.87745821475982666016e-03) (9, -1.03628061711788177490e-01) (10, 3.97120639681816101074e-02) (11, -1.60095021128654479980e-02) (12, 6.17747008800506591797e-02) (13, 3.38824391365051269531e-02) (14, -4.90071997046470642090e-02) (15, -1.70070752501487731934e-02) (16, 4.90164831280708312988e-02) (17, 7.04339742660522460938e-02) (18, 4.55745533108711242676e-02) (19, 8.79384577274322509766e-03) (20, -2.55014467984437942505e-02) (21, 6.77506744861602783203e-01) (22, -7.37332999706268310547e-01) (23, -3.40961754322052001953e-01) (24, -1.18179880082607269287e-01) (25, -2.04748421907424926758e-01) (26, -2.16098308563232421875e-01) (27, 2.68654599785804748535e-02) (28, -6.63684904575347900391e-02) (29, 4.49193734675645828247e-03) (30, -1.13043300807476043701e-01) (31, -1.82944625616073608398e-01) (32, 1.10848583281040191650e-01) (33, -3.59576717019081115723e-02) (0, -4.44573581218719482422e-01) (1, -2.08316281437873840332e-01) (2, -7.04962462186813354492e-02) (3, -1.41242548823356628418e-01) (4, -3.01360785961151123047e-02) (5, -6.69650137424468994141e-02) (6, -3.82788628339767456055e-02) (7, -7.86762386560440063477e-02) (8, 4.87014800310134887695e-02) (9, -5.34640103578567504883e-02) (10, 7.11156204342842102051e-02) (11, -8.53457227349281311035e-02) (12, 4.44889627397060394287e-02) (13, 3.50921861827373504639e-02) (14, 1.00048325955867767334e-01) (15, 5.02356002107262611389e-03) (16, -4.11538407206535339355e-02) (17, -1.04930587112903594971e-02) (18, 6.92383851855993270874e-04) (19, 1.02819912135601043701e-01) (20, 8.67621973156929016113e-02) (21, -2.60787338018417358398e-01) (22, 8.63582454621791839600e-03) (23, 4.92032915353775024414e-02) (24, 2.13874444365501403809e-01) (25, 1.34823366999626159668e-01) (26, 6.48451447486877441406e-02) (27, 6.58080354332923889160e-02) (28, 6.84120580554008483887e-02) (29, -3.87225747108459472656e-02) (30, -4.25321087241172790527e-02) (31, 4.00075390934944152832e-02) (32, -2.99522578716278076172e-02) (33, 7.33516588807106018066e-02) (0, 2.26185634732246398926e-01) (1, 1.43189609050750732422e-01) (2, 3.75993289053440093994e-02) (3, 1.86175972223281860352e-01) (4, 1.94144979119300842285e-01) (5, 1.21970921754837036133e-01) (6, 1.26712247729301452637e-01) (7, 1.61562308669090270996e-01) (8, 1.72659188508987426758e-01) (9, 1.44158035516738891602e-01) (10, 1.27957507967948913574e-01) (11, 1.63678020238876342773e-01) (12, 4.01520840823650360107e-02) (13, 1.77774176001548767090e-01) (14, 4.41554002463817596436e-02) (15, 1.31814882159233093262e-01) (16, 1.71564608812332153320e-01) (17, 2.21888110041618347168e-01) (18, 1.96622446179389953613e-01) (19, 1.96433648467063903809e-01) (20, 4.88463155925273895264e-02) (21, -8.02989125251770019531e-01) (22, -1.69416797161102294922e+00) (23, -8.79726886749267578125e-01) (24, -3.51076930761337280273e-01) (25, -2.38986425101757049561e-02) (26, -3.23228150606155395508e-01) (27, 4.66545671224594116211e-01) (28, -1.20769783854484558105e-01) (29, 6.49296790361404418945e-02) (30, 1.46338105201721191406e-01) (31, -8.15215706825256347656e-02) (32, 1.16162553429603576660e-01) (33, 1.51381701231002807617e-01) (0, 8.83122324943542480469e-01) (1, 1.18222200870513916016e+00) (2, 8.90298604965209960938e-01) (3, 8.40236663818359375000e-01) (4, 1.14410269260406494141e+00) (5, -3.81829366087913513184e-02) (6, -1.16763787809759378433e-03) (7, 1.00280845165252685547e+00) (8, 1.02696168422698974609e+00) (9, 1.04759335517883300781e+00) (10, 8.88820052146911621094e-01) (11, 1.04879820346832275391e+00) (12, 9.57089424133300781250e-01) (13, 1.03806531429290771484e+00) (14, 1.04836750030517578125e+00) (15, 9.31393146514892578125e-01) (16, 1.01218020915985107422e+00) (17, 8.74895572662353515625e-01) (18, 8.73216331005096435547e-01) (19, 1.03746187686920166016e+00) (20, 1.03287279605865478516e+00) (21, -1.82120740413665771484e-01) (22, -2.26746335625648498535e-01) (23, -1.03154771029949188232e-01) (24, -2.02830404043197631836e-01) (25, -4.93965670466423034668e-02) (26, -9.57186445593833923340e-02) (27, 8.73847723007202148438e-01) (28, -8.36501494050025939941e-02) (29, 2.47494112700223922729e-02) (30, 9.97253835201263427734e-01) (31, 1.18302971124649047852e-01) (32, 9.37682509422302246094e-01) (33, 8.71032774448394775391e-01) (0, 4.68290656805038452148e-01) (1, 7.48850584030151367188e-01) (2, 5.51801681518554687500e-01) (3, 6.59348249435424804688e-01) (4, 8.10901522636413574219e-01) (5, 9.58511307835578918457e-02) (6, -2.03337054699659347534e-02) (7, 7.86539912223815917969e-01) (8, 7.20248103141784667969e-01) (9, 5.84938883781433105469e-01) (10, 6.87243103981018066406e-01) (11, 7.07131743431091308594e-01) (12, 6.54847979545593261719e-01) (13, 6.37939333915710449219e-01) (14, 7.20542788505554199219e-01) (15, 6.66579842567443847656e-01) (16, 6.13917350769042968750e-01) (17, 6.91931605339050292969e-01) (18, 5.89570522308349609375e-01) (19, 5.74315786361694335938e-01) (20, 6.82575464248657226562e-01) (21, -1.41915977001190185547e-01) (22, -5.75029551982879638672e-01) (23, -3.13128262758255004883e-01) (24, -2.23034203052520751953e-01) (25, -1.62790626287460327148e-01) (26, -2.87338048219680786133e-01) (27, 7.30972588062286376953e-01) (28, -1.13296709954738616943e-01) (29, 4.05246019363403320312e-02) (30, 6.24283671379089355469e-01) (31, -1.91068463027477264404e-02) (32, 5.41418015956878662109e-01) (33, 6.57950639724731445312e-01) (0, -9.86273288726806640625e-02) (1, -1.20378375053405761719e-01) (2, 2.28178650140762329102e-01) (3, 2.07262322306632995605e-01) (4, 1.25281214714050292969e-01) (5, 3.05859535932540893555e-01) (6, 2.01989397406578063965e-01) (7, 6.39369040727615356445e-02) (8, 3.00306528806686401367e-01) (9, 3.88939887285232543945e-01) (10, 2.19394192099571228027e-01) (11, 2.87060350179672241211e-01) (12, 3.21730822324752807617e-01) (13, 2.99522489309310913086e-01) (14, 2.45203047990798950195e-01) (15, 3.77512425184249877930e-01) (16, 3.40049296617507934570e-01) (17, 3.93989592790603637695e-01) (18, 3.15981835126876831055e-01) (19, 3.64056915044784545898e-01) (20, 2.98349708318710327148e-01) (21, -4.11372947692871093750e+00) (22, -1.85194242000579833984e+00) (23, -4.53363180160522460938e-01) (24, -5.76250106096267700195e-02) (25, 3.65898936986923217773e-01) (26, 1.42072439193725585938e-02) (27, 1.94700852036476135254e-01) (28, 2.21769317984580993652e-01) (29, -3.10330986976623535156e-02) (30, 3.56761068105697631836e-01) (31, 2.71700453013181686401e-02) (32, -1.10597252845764160156e-01) (33, 2.80067473649978637695e-01) (0, 3.82090270519256591797e-01) (1, 6.67611658573150634766e-01) (2, 4.73738342523574829102e-01) (3, 3.90131831169128417969e-01) (4, 5.26637315750122070312e-01) (5, -3.46786603331565856934e-02) (6, -9.79585498571395874023e-02) (7, 5.04490733146667480469e-01) (8, 4.71195578575134277344e-01) (9, 5.29546737670898437500e-01) (10, 5.09432852268218994141e-01) (11, 4.99200373888015747070e-01) (12, 4.89860832691192626953e-01) (13, 4.32283729314804077148e-01) (14, 4.75991636514663696289e-01) (15, 3.88644129037857055664e-01) (16, 3.79142194986343383789e-01) (17, 3.57143014669418334961e-01) (18, 4.32604283094406127930e-01) (19, 4.44673329591751098633e-01) (20, 4.67403888702392578125e-01) (21, -5.29778003692626953125e-01) (22, -5.21766781806945800781e-01) (23, -2.70252645015716552734e-01) (24, -3.38542580604553222656e-01) (25, -2.40772515535354614258e-01) (26, -2.21555724740028381348e-01) (27, 6.19236826896667480469e-01) (28, -7.92234316468238830566e-02) (29, -2.17488110065460205078e-02) (30, 3.75343650579452514648e-01) (31, 1.00037239491939544678e-01) (32, 4.33944851160049438477e-01) (33, 3.47978621721267700195e-01) (0, -3.49195271730422973633e-01) (1, -5.26409685611724853516e-01) (2, -4.29809957742691040039e-01) (3, -3.06549727916717529297e-01) (4, -5.95963895320892333984e-01) (5, 1.32908806204795837402e-01) (6, 1.14406339824199676514e-01) (7, -3.69230985641479492188e-01) (8, -3.38702768087387084961e-01) (9, -3.94764244556427001953e-01) (10, -4.05144929885864257812e-01) (11, -4.08301562070846557617e-01) (12, -3.51710706949234008789e-01) (13, -3.71593445539474487305e-01) (14, -3.96749198436737060547e-01) (15, -4.64696645736694335938e-01) (16, -4.72510337829589843750e-01) (17, -4.74935680627822875977e-01) (18, -4.52776610851287841797e-01) (19, -4.34502393007278442383e-01) (20, -3.02337080240249633789e-01) (21, 1.14874571561813354492e-01) (22, 3.81448060274124145508e-01) (23, 2.48657464981079101562e-01) (24, 1.48753851652145385742e-01) (25, 9.24504026770591735840e-02) (26, 1.88348084688186645508e-01) (27, -5.70101380348205566406e-01) (28, 1.56872063875198364258e-01) (29, 5.30560724437236785889e-02) (30, -4.26430016756057739258e-01) (31, -2.30769123882055282593e-02) (32, -3.83931905031204223633e-01) (33, -3.68299543857574462891e-01) (0, 5.49243353307247161865e-02) (1, -2.30121716856956481934e-01) (2, -1.43771693110466003418e-01) (3, -1.02041944861412048340e-01) (4, -1.51476010680198669434e-01) (5, 1.28462612628936767578e-01) (6, 1.34164944291114807129e-01) (7, -1.64903715252876281738e-01) (8, -1.44757814705371856689e-02) (9, 2.62120384722948074341e-02) (10, -3.92108969390392303467e-02) (11, 6.48232996463775634766e-02) (12, 3.75633239746093750000e-02) (13, -3.56732718646526336670e-02) (14, 6.59356415271759033203e-02) (15, 6.08348697423934936523e-02) (16, 5.87238464504480361938e-03) (17, 3.96468974649906158447e-02) (18, -8.85724872350692749023e-02) (19, -1.01095616817474365234e-01) (20, 5.49240000545978546143e-02) (21, -3.44104230403900146484e-01) (22, -5.00547997653484344482e-02) (23, 1.25646308064460754395e-01) (24, 1.70017436146736145020e-01) (25, 2.16851204633712768555e-01) (26, 1.23498812317848205566e-01) (27, -1.72702819108963012695e-01) (28, 1.59978136420249938965e-01) (29, 4.46660537272691726685e-03) (30, -6.64989203214645385742e-02) (31, 5.33661395311355590820e-02) (32, -2.14776962995529174805e-01) (33, 2.49858219176530838013e-02) (0, -2.61555343866348266602e-01) (1, -4.67899620532989501953e-01) (2, -2.29740828275680541992e-01) (3, -1.92615866661071777344e-01) (4, -4.05601352453231811523e-01) (5, 2.03311070799827575684e-03) (6, 8.70461836457252502441e-02) (7, -3.11492383480072021484e-01) (8, -3.37491631507873535156e-01) (9, -3.28282713890075683594e-01) (10, -3.46980869770050048828e-01) (11, -3.60503673553466796875e-01) (12, -3.56395542621612548828e-01) (13, -2.30055958032608032227e-01) (14, -2.09804341197013854980e-01) (15, -3.33915531635284423828e-01) (16, -2.20099091529846191406e-01) (17, -2.43828058242797851562e-01) (18, -2.93958842754364013672e-01) (19, -2.08157360553741455078e-01) (20, -1.84323474764823913574e-01) (21, 4.55142259597778320312e-01) (22, 3.72589826583862304688e-01) (23, 2.08248719573020935059e-01) (24, 2.33565524220466613770e-01) (25, 3.08760881423950195312e-01) (26, 1.61001577973365783691e-01) (27, -3.57181996107101440430e-01) (28, 1.84136465191841125488e-01) (29, 2.42565870285034179688e-02) (30, -2.89375424385070800781e-01) (31, 5.49002550542354583740e-02) (32, -3.58065009117126464844e-01) (33, -3.24506998062133789062e-01) (0, -5.90130746364593505859e-01) (1, -7.58987188339233398438e-01) (2, -5.65893232822418212891e-01) (3, -4.58897858858108520508e-01) (4, -7.74833619594573974609e-01) (5, 4.60266321897506713867e-02) (6, 1.36480787768959999084e-02) (7, -6.93187713623046875000e-01) (8, -5.51415205001831054688e-01) (9, -6.59497976303100585938e-01) (10, -6.71663582324981689453e-01) (11, -5.86407124996185302734e-01) (12, -6.18601143360137939453e-01) (13, -5.16950368881225585938e-01) (14, -6.55422747135162353516e-01) (15, -5.37747561931610107422e-01) (16, -5.50295293331146240234e-01) (17, -6.64933741092681884766e-01) (18, -5.69707214832305908203e-01) (19, -6.03761136531829833984e-01) (20, -6.61884069442749023438e-01) (21, 1.26382157206535339355e-01) (22, 3.76571357250213623047e-01) (23, 3.56192886829376220703e-01) (24, 3.32650005817413330078e-01) (25, 1.44796267151832580566e-01) (26, 1.80587515234947204590e-01) (27, -7.22458422183990478516e-01) (28, 1.83027639985084533691e-01) (29, 2.21645720303058624268e-02) (30, -5.79720795154571533203e-01) (31, -2.31833383440971374512e-02) (32, -6.74873173236846923828e-01) (33, -6.67970240116119384766e-01) (0, -9.64139461517333984375e-01) (1, -1.05768692493438720703e+00) (2, -7.83508062362670898438e-01) (3, -8.38325083255767822266e-01) (4, -1.12941777706146240234e+00) (5, 2.86064743995666503906e-02) (6, 1.38999000191688537598e-01) (7, -1.03652465343475341797e+00) (8, -9.32003080844879150391e-01) (9, -9.53638017177581787109e-01) (10, -9.69516456127166748047e-01) (11, -8.72630655765533447266e-01) (12, -9.76590156555175781250e-01) (13, -1.00501632690429687500e+00) (14, -8.22768867015838623047e-01) (15, -8.31501781940460205078e-01) (16, -8.93982112407684326172e-01) (17, -9.69857990741729736328e-01) (18, -9.81568574905395507812e-01) (19, -1.01496326923370361328e+00) (20, -1.00943040847778320312e+00) (21, 7.87128210067749023438e-02) (22, 2.38310888409614562988e-01) (23, 2.05636575818061828613e-01) (24, 2.26047217845916748047e-01) (25, 9.10115540027618408203e-02) (26, 6.76461383700370788574e-02) (27, -9.71944808959960937500e-01) (28, 1.28280684351921081543e-01) (29, -4.26584742963314056396e-02) (30, -9.15568292140960693359e-01) (31, -1.27150818705558776855e-01) (32, -8.09685826301574707031e-01) (33, -9.19671952724456787109e-01) (0, -2.79856950044631958008e-01) (1, -5.08153498172760009766e-01) (2, -4.08837765455245971680e-01) (3, -3.15723866224288940430e-01) (4, -5.49278140068054199219e-01) (5, 9.83166694641113281250e-02) (6, 1.55472189188003540039e-01) (7, -4.49838519096374511719e-01) (8, -3.58193486928939819336e-01) (9, -4.31062132120132446289e-01) (10, -3.57742816209793090820e-01) (11, -3.61294984817504882812e-01) (12, -4.42896425724029541016e-01) (13, -4.32057648897171020508e-01) (14, -3.11485320329666137695e-01) (15, -4.04797434806823730469e-01) (16, -4.27353352308273315430e-01) (17, -3.01248222589492797852e-01) (18, -3.67366522550582885742e-01) (19, -3.59565436840057373047e-01) (20, -4.06327098608016967773e-01) (21, 7.86540210247039794922e-02) (22, 3.60618025064468383789e-01) (23, 2.16088697314262390137e-01) (24, 1.68013319373130798340e-01) (25, 2.24730417132377624512e-01) (26, 1.90440446138381958008e-01) (27, -4.18514668941497802734e-01) (28, 1.21841341257095336914e-01) (29, -1.15917865186929702759e-02) (30, -3.83796900510787963867e-01) (31, 3.35837937891483306885e-02) (32, -3.81673097610473632812e-01) (33, -3.24524641036987304688e-01) (0, -1.64230585098266601562e-01) (1, -2.91139155626296997070e-01) (2, -2.57934182882308959961e-01) (3, -8.59712883830070495605e-02) (4, -1.67136386036872863770e-01) (5, 1.97931990027427673340e-01) (6, 2.72906064987182617188e-01) (7, -3.40217053890228271484e-01) (8, -1.63572281599044799805e-01) (9, -2.75833103805780410767e-02) (10, -1.33344471454620361328e-01) (11, -2.22890451550483703613e-01) (12, -1.80213794112205505371e-01) (13, -1.08530551195144653320e-01) (14, -7.19715654850006103516e-02) (15, -9.54131484031677246094e-02) (16, -2.15928807854652404785e-01) (17, -2.61314306408166885376e-02) (18, -8.84125828742980957031e-02) (19, -6.06686286628246307373e-02) (20, -1.63205832242965698242e-01) (21, 8.73055338859558105469e-01) (22, 6.81882023811340332031e-01) (23, 5.07844805717468261719e-01) (24, 3.31522226333618164062e-01) (25, 1.39417946338653564453e-01) (26, 2.29233965277671813965e-01) (27, -4.57197010517120361328e-01) (28, 1.72986611723899841309e-01) (29, 3.41905839741230010986e-02) (30, -5.97501806914806365967e-02) (31, 1.20441332459449768066e-01) (32, -2.61249214410781860352e-01) (33, -1.85171201825141906738e-01) (0, -4.89026993513107299805e-01) (1, -5.64051210880279541016e-01) (2, -4.37420099973678588867e-01) (3, -4.26019370555877685547e-01) (4, -3.71923625469207763672e-01) (5, 1.28578878939151763916e-02) (6, -1.45467408001422882080e-02) (7, -3.14568400382995605469e-01) (8, -3.36076617240905761719e-01) (9, -3.50182503461837768555e-01) (10, -3.23669523000717163086e-01) (11, -3.85050922632217407227e-01) (12, -2.22598552703857421875e-01) (13, -3.16601246595382690430e-01) (14, -3.88185262680053710938e-01) (15, -2.88014054298400878906e-01) (16, -3.54272812604904174805e-01) (17, -3.28394144773483276367e-01) (18, -2.89154499769210815430e-01) (19, -2.86718338727951049805e-01) (20, -3.48335593938827514648e-01) (21, 2.50727444887161254883e-01) (22, 2.92951464653015136719e-01) (23, 2.32304111123085021973e-01) (24, 1.35308697819709777832e-01) (25, 2.38665759563446044922e-01) (26, 4.29044589400291442871e-02) (27, -4.19783383607864379883e-01) (28, 4.02041077613830566406e-02) (29, -1.41551019623875617981e-02) (30, -2.85243242979049682617e-01) (31, 7.41619467735290527344e-02) (32, -3.38780969381332397461e-01) (33, -2.78864532709121704102e-01) (34, -2.15228661894798278809e-01) (35, -8.96532535552978515625e-02) (36, -3.58096808195114135742e-02) (37, -1.37176901102066040039e-01) (38, -4.46268975734710693359e-01) (39, -1.65480166673660278320e-01) (40, -1.42727449536323547363e-01) (41, -7.40989819169044494629e-02) (42, 5.77613748610019683838e-02) (43, -2.40217242389917373657e-03) (44, 1.93803943693637847900e-02) (45, 5.23197203874588012695e-02) (46, 4.01546329259872436523e-01) (47, 8.45753550529479980469e-02) (48, 6.46837055683135986328e-02) (49, 1.69594898819923400879e-01) (50, -6.86554014682769775391e-01) (34, -3.42920094728469848633e-01) (35, -2.19454616308212280273e-01) (36, 1.66444927453994750977e-01) (37, -1.41508519649505615234e-01) (38, -3.66645127534866333008e-01) (39, -8.22278261184692382812e-02) (40, -1.49410357698798179626e-03) (41, -6.26761242747306823730e-02) (42, 4.37534451484680175781e-02) (43, -2.88434140384197235107e-02) (44, 3.80268879234790802002e-02) (45, 8.07307437062263488770e-02) (46, 4.93947535753250122070e-01) (47, -5.90089801698923110962e-03) (48, 3.96675504744052886963e-02) (49, 1.32236003875732421875e-01) (50, -8.35025370121002197266e-01) (34, -2.88047552108764648438e-01) (35, -1.80609330534934997559e-01) (36, 2.08376288414001464844e-01) (37, -2.20816165208816528320e-01) (38, -4.70183938741683959961e-01) (39, -1.00916251540184020996e-01) (40, -6.83276504278182983398e-02) (41, -4.10026386380195617676e-02) (42, 1.12809792160987854004e-01) (43, -4.65263500809669494629e-02) (44, 7.92537033557891845703e-02) (45, 7.38271847367286682129e-02) (46, 5.37916541099548339844e-01) (47, 1.53950378298759460449e-01) (48, 1.16225266829133033752e-02) (49, 1.23704366385936737061e-01) (50, -7.89566814899444580078e-01) (34, -2.15842574834823608398e-01) (35, 3.13844978809356689453e-02) (36, 7.37733319401741027832e-02) (37, -6.02646432816982269287e-02) (38, -5.08401155471801757812e-01) (39, -2.06764221191406250000e-01) (40, -1.39854967594146728516e-01) (41, -3.79846245050430297852e-02) (42, 4.97399643063545227051e-02) (43, -3.53710949420928955078e-02) (44, 4.08295802772045135498e-02) (45, 2.52368927001953125000e-01) (46, 4.97918814420700073242e-01) (47, 1.47316336631774902344e-01) (48, 7.92826190590858459473e-02) (49, 6.47765994071960449219e-02) (50, -8.66028070449829101562e-01) (34, -2.92557418346405029297e-01) (35, -5.20703718066215515137e-02) (36, -2.23655030131340026855e-02) (37, -6.85687661170959472656e-02) (38, -5.56991219520568847656e-01) (39, -2.24147871136665344238e-01) (40, -1.83909258339554071426e-04) (41, -9.82494130730628967285e-02) (42, 2.06802695989608764648e-01) (43, 5.03073707222938537598e-02) (44, 8.01155567169189453125e-02) (45, 2.85253584384918212891e-01) (46, 5.93975245952606201172e-01) (47, 5.28975091874599456787e-02) (48, 8.73584896326065063477e-02) (49, 2.35763758420944213867e-01) (50, -8.76550018787384033203e-01) (34, -3.12957257032394409180e-01) (35, -1.53608277440071105957e-01) (36, -2.99597885459661483765e-02) (37, -1.95654317736625671387e-01) (38, -4.56778913736343383789e-01) (39, -3.61544847488403320312e-01) (40, -1.23587563633918762207e-01) (41, -2.31665730476379394531e-01) (42, 1.09267674386501312256e-01) (43, 1.62374585866928100586e-01) (44, 2.19894200563430786133e-01) (45, 2.22607359290122985840e-01) (46, 6.59014225006103515625e-01) (47, 1.07767179608345031738e-01) (48, 1.01739559322595596313e-02) (49, 1.90864086151123046875e-01) (50, -9.84736561775207519531e-01) (34, -3.65524441003799438477e-01) (35, -5.10465130209922790527e-02) (36, 1.25908896327018737793e-01) (37, -1.51736870408058166504e-01) (38, -6.50926113128662109375e-01) (39, -2.89081931114196777344e-01) (40, -1.15949653089046478271e-01) (41, -1.41095280647277832031e-01) (42, 2.39420965313911437988e-01) (43, 5.31524792313575744629e-03) (44, 2.25922748446464538574e-01) (45, 2.67340093851089477539e-01) (46, 5.40837287902832031250e-01) (47, 1.79302632808685302734e-01) (48, 4.98523749411106109619e-02) (49, 1.31725847721099853516e-01) (50, -1.03407943248748779297e+00) (34, -4.18057352304458618164e-01) (35, -1.37856379151344299316e-01) (36, 6.06292784214019775391e-02) (37, -1.34518906474113464355e-01) (38, -6.05719268321990966797e-01) (39, -2.77072370052337646484e-01) (40, -7.39958509802818298340e-02) (41, -2.22647204995155334473e-01) (42, 1.13330498337745666504e-01) (43, 4.56841513514518737793e-02) (44, 1.22528403997421264648e-01) (45, 1.82453542947769165039e-01) (46, 6.63267970085144042969e-01) (47, 2.25786939263343811035e-01) (48, 1.57407417893409729004e-01) (49, 1.74337759613990783691e-01) (50, -9.80813264846801757812e-01) (34, -4.58372354507446289062e-01) (35, -2.81016100198030471802e-02) (36, -5.70802250877022743225e-03) (37, -1.48755043745040893555e-01) (38, -6.46124064922332763672e-01) (39, -2.74584412574768066406e-01) (40, 3.18094925023615360260e-03) (41, -2.43616282939910888672e-01) (42, 2.14883282780647277832e-01) (43, 1.87221586704254150391e-01) (44, 2.35364869236946105957e-01) (45, 3.24062198400497436523e-01) (46, 5.82821249961853027344e-01) (47, 1.81139737367630004883e-01) (48, 2.47653145343065261841e-02) (49, 1.78316697478294372559e-01) (50, -1.00885212421417236328e+00) (34, -4.11022245883941650391e-01) (35, -3.39968055486679077148e-02) (36, 4.32327315211296081543e-02) (37, -2.57413208484649658203e-01) (38, -5.45100688934326171875e-01) (39, -3.21661829948425292969e-01) (40, -7.09327086806297302246e-02) (41, -2.32288554310798645020e-01) (42, 2.74026930332183837891e-01) (43, 5.82904741168022155762e-02) (44, 8.89009535312652587891e-02) (45, 3.06238502264022827148e-01) (46, 7.01862394809722900391e-01) (47, 2.51026421785354614258e-01) (48, 2.01357584446668624878e-02) (49, 2.15186163783073425293e-01) (50, -9.89683568477630615234e-01) (34, -3.64987909793853759766e-01) (35, 3.00833713263273239136e-02) (36, 9.32693257927894592285e-02) (37, -1.29964664578437805176e-01) (38, -6.55708014965057373047e-01) (39, -3.84562224149703979492e-01) (40, -4.67297062277793884277e-02) (41, -2.61367052793502807617e-01) (42, 2.78420209884643554688e-01) (43, 1.28936946392059326172e-01) (44, 1.43925368785858154297e-01) (45, 3.39226871728897094727e-01) (46, 5.38332402706146240234e-01) (47, 1.66469335556030273438e-01) (48, 9.15059894323348999023e-02) (49, 2.44650498032569885254e-01) (50, -9.87826228141784667969e-01) (34, -3.61034303903579711914e-01) (35, -2.35359724611043930054e-02) (36, 1.06986984610557556152e-02) (37, -2.08959907293319702148e-01) (38, -6.70659601688385009766e-01) (39, -3.48219811916351318359e-01) (40, -8.16966220736503601074e-02) (41, -2.31791153550148010254e-01) (42, 2.36353576183319091797e-01) (43, 4.11138683557510375977e-03) (44, 2.01244831085205078125e-01) (45, 2.95664817094802856445e-01) (46, 6.17847740650177001953e-01) (47, 2.30142131447792053223e-01) (48, 9.31077152490615844727e-02) (49, 2.11883157491683959961e-01) (50, -9.63680446147918701172e-01) (34, -4.40459072589874267578e-01) (35, 3.00831645727157592773e-02) (36, 8.37736427783966064453e-02) (37, -7.91135579347610473633e-02) (38, -6.59861207008361816406e-01) (39, -2.78816699981689453125e-01) (40, -4.59659397602081298828e-02) (41, -1.65968015789985656738e-01) (42, 1.92758753895759582520e-01) (43, 9.81514081358909606934e-02) (44, 2.32767760753631591797e-01) (45, 3.38214457035064697266e-01) (46, 5.49576342105865478516e-01) (47, 2.46432155370712280273e-01) (48, 9.38719660043716430664e-02) (49, 2.82974272966384887695e-01) (50, -1.03041064739227294922e+00) (34, -3.52875888347625732422e-01) (35, 4.33985963463783264160e-02) (36, 3.82630759850144386292e-03) (37, -2.20760256052017211914e-01) (38, -6.46745383739471435547e-01) (39, -3.48231375217437744141e-01) (40, -1.24475888907909393311e-01) (41, -2.56873518228530883789e-01) (42, 2.79540657997131347656e-01) (43, 1.34750261902809143066e-01) (44, 2.00297683477401733398e-01) (45, 2.42489665746688842773e-01) (46, 5.73692798614501953125e-01) (47, 1.62686675786972045898e-01) (48, 1.34649336338043212891e-01) (49, 1.67042985558509826660e-01) (50, -1.03091573715209960938e+00) (34, -3.86191904544830322266e-01) (35, -6.96275979280471801758e-02) (36, 1.00207954645156860352e-01) (37, -2.12648183107376098633e-01) (38, -7.02266693115234375000e-01) (39, -3.68778079748153686523e-01) (40, 4.72521921619772911072e-03) (41, -2.96056956052780151367e-01) (42, 1.65735080838203430176e-01) (43, 2.03119665384292602539e-02) (44, 2.32213124632835388184e-01) (45, 3.15770119428634643555e-01) (46, 5.45993864536285400391e-01) (47, 1.23087279498577117920e-01) (48, 7.42003247141838073730e-02) (49, 1.34364873170852661133e-01) (50, -1.04003965854644775391e+00) (34, -4.26824748516082763672e-01) (35, -1.10210314393043518066e-01) (36, 5.57377375662326812744e-02) (37, -1.34459957480430603027e-01) (38, -6.50000274181365966797e-01) (39, -2.86956667900085449219e-01) (40, -8.54618251323699951172e-02) (41, -2.53028154373168945312e-01) (42, 1.35912567377090454102e-01) (43, 1.41124293208122253418e-01) (44, 1.71136751770973205566e-01) (45, 3.41532051563262939453e-01) (46, 5.58883428573608398438e-01) (47, 2.58282780647277832031e-01) (48, 1.07222728431224822998e-01) (49, 2.38830879330635070801e-01) (50, -9.97992157936096191406e-01) (34, -3.69391143321990966797e-01) (35, -1.79577823728322982788e-02) (36, 1.24402694404125213623e-01) (37, -1.32500246167182922363e-01) (38, -5.94643950462341308594e-01) (39, -4.19029474258422851562e-01) (40, 4.76176291704177856445e-03) (41, -1.85629174113273620605e-01) (42, 3.06087076663970947266e-01) (43, 1.86082437634468078613e-01) (44, 2.19950199127197265625e-01) (45, 2.26819336414337158203e-01) (46, 5.77913463115692138672e-01) (47, 1.58297628164291381836e-01) (48, 1.24810136854648590088e-01) (49, 1.84056699275970458984e-01) (50, -1.03457629680633544922e+00) (34, -4.98533099889755249023e-01) (35, -4.77972775697708129883e-02) (36, 2.59826481342315673828e-02) (37, -1.56564950942993164062e-01) (38, -5.87153494358062744141e-01) (39, -3.19775104522705078125e-01) (40, -8.97606909275054931641e-02) (41, -2.27921217679977416992e-01) (42, 2.31418192386627197266e-01) (43, 1.09771363437175750732e-01) (44, 1.19313552975654602051e-01) (45, 2.01064243912696838379e-01) (46, 6.09692692756652832031e-01) (47, 2.93308407068252563477e-01) (48, 1.99924677610397338867e-01) (49, 1.28652036190032958984e-01) (50, -1.01333951950073242188e+00) (34, -3.66343855857849121094e-01) (35, 3.14277084544301033020e-03) (36, 1.24835260212421417236e-01) (37, -1.38838455080986022949e-01) (38, -6.10311985015869140625e-01) (39, -2.58361965417861938477e-01) (40, -4.65460494160652160645e-02) (41, -2.47194886207580566406e-01) (42, 3.13021600246429443359e-01) (43, 1.16454996168613433838e-01) (44, 1.49501487612724304199e-01) (45, 2.76427894830703735352e-01) (46, 7.15876579284667968750e-01) (47, 1.58527210354804992676e-01) (48, 1.44419297575950622559e-01) (49, 2.23114445805549621582e-01) (50, -9.84662652015686035156e-01) (34, -4.32892531156539916992e-01) (35, -8.89853686094284057617e-02) (36, -1.18408808484673500061e-02) (37, -9.56549271941184997559e-02) (38, -5.54637908935546875000e-01) (39, -2.39728331565856933594e-01) (40, -9.67253148555755615234e-02) (41, -2.71569430828094482422e-01) (42, 2.77303278446197509766e-01) (43, 1.00255928933620452881e-01) (44, 2.28177070617675781250e-01) (45, 3.20603132247924804688e-01) (46, 6.52629792690277099609e-01) (47, 2.36502036452293395996e-01) (48, 1.01719886064529418945e-01) (49, 2.01225936412811279297e-01) (50, -9.83428299427032470703e-01) (34, -4.77656275033950805664e-01) (35, -1.68830439448356628418e-01) (36, 4.88838627934455871582e-02) (37, -1.19581513106822967529e-01) (38, -6.54528915882110595703e-01) (39, -3.38578730821609497070e-01) (40, -6.53548464179039001465e-02) (41, -1.74236059188842773438e-01) (42, 1.49642601609230041504e-01) (43, 9.62075144052505493164e-02) (44, 8.81439149379730224609e-02) (45, 3.41230243444442749023e-01) (46, 5.31233251094818115234e-01) (47, 2.72530466318130493164e-01) (48, 4.18343991041183471680e-02) (49, 2.02480122447013854980e-01) (50, -1.09334003925323486328e+00) (34, 4.94261115789413452148e-01) (35, 3.69295803830027580261e-03) (36, 1.56424604356288909912e-02) (37, 1.20405234396457672119e-01) (38, 5.54349780082702636719e-01) (39, 3.68008762598037719727e-01) (40, 1.37717977166175842285e-01) (41, 1.48342996835708618164e-01) (42, -2.12582871317863464355e-01) (43, -8.58293771743774414062e-02) (44, -7.17363581061363220215e-02) (45, -3.33411037921905517578e-01) (46, -7.16732978820800781250e-01) (47, -1.69700086116790771484e-01) (48, -1.19829840958118438721e-01) (49, -3.07626485824584960938e-01) (50, 9.68915045261383056641e-01) (34, -1.45636707544326782227e-01) (35, 3.94396364688873291016e-01) (36, -9.88008901476860046387e-02) (37, 6.34361207485198974609e-02) (38, -2.31804341077804565430e-01) (39, 7.23098814487457275391e-02) (40, -1.23830354213714599609e+00) (41, -9.88102257251739501953e-02) (42, -2.58219242095947265625e-02) (43, -1.09771668910980224609e-01) (44, 1.57479330897331237793e-01) (45, -2.78531014919281005859e-02) (46, 1.73102468252182006836e-01) (47, -1.58805549144744873047e-02) (48, 1.85624033212661743164e-01) (49, 1.04688599705696105957e-01) (50, -2.49543920159339904785e-01) (34, -1.94767385721206665039e-01) (35, -2.43881806731224060059e-01) (36, -1.09496852383017539978e-02) (37, -6.65985763072967529297e-01) (38, -3.53100538253784179688e-01) (39, -2.66295850276947021484e-01) (40, -9.87593591213226318359e-01) (41, -1.53655841946601867676e-01) (42, 5.17451129853725433350e-02) (43, -5.24581223726272583008e-02) (44, 1.31224349141120910645e-01) (45, 1.43132328987121582031e-01) (46, 2.70505070686340332031e-01) (47, 7.76820555329322814941e-02) (48, 3.22938948869705200195e-01) (49, 1.16878680884838104248e-01) (50, -6.37692451477050781250e-01) (34, -1.60817503929138183594e-01) (35, -2.46715903282165527344e-01) (36, 3.83354425430297851562e-02) (37, -6.27716183662414550781e-01) (38, -3.13414096832275390625e-01) (39, -2.25442305207252502441e-01) (40, -5.94144701957702636719e-01) (41, -6.38495683670043945312e-02) (42, 1.15714013576507568359e-01) (43, 2.29938533157110214233e-02) (44, 8.46247151494026184082e-02) (45, 7.28555396199226379395e-02) (46, 2.92117983102798461914e-01) (47, 6.83502182364463806152e-02) (48, 3.22027474641799926758e-01) (49, 1.39779463410377502441e-01) (50, -7.14145600795745849609e-01) (34, -2.45243310928344726562e-01) (35, -1.35631576180458068848e-01) (36, 1.00299805402755737305e-01) (37, -4.25894588232040405273e-01) (38, -2.41396099328994750977e-01) (39, -7.14548975229263305664e-02) (40, -2.95801162719726562500e-01) (41, -1.41254559159278869629e-01) (42, 4.69268113374710083008e-02) (43, 7.98227712512016296387e-02) (44, 1.23773496598005294800e-02) (45, 1.24916009604930877686e-01) (46, 4.50872987508773803711e-01) (47, 3.60362185165286064148e-03) (48, 1.69806689023971557617e-01) (49, 5.54515272378921508789e-02) (50, -6.98128223419189453125e-01) (34, -3.80083322525024414062e-01) (35, -6.02322397753596305847e-03) (36, 1.12666986882686614990e-01) (37, -1.72039747238159179688e-01) (38, -5.09424805641174316406e-01) (39, -2.74879455566406250000e-01) (40, -4.62675169110298156738e-02) (41, -1.17645367980003356934e-01) (42, 1.31304576992988586426e-01) (43, 1.02328672073781490326e-03) (44, 1.77084952592849731445e-01) (45, 1.36694610118865966797e-01) (46, 4.66589868068695068359e-01) (47, 7.72088840603828430176e-02) (48, 1.55832380056381225586e-01) (49, 7.82496258616447448730e-02) (50, -8.26185762882232666016e-01) (34, -2.68337339162826538086e-01) (35, -1.71489834785461425781e-01) (36, 3.26963700354099273682e-02) (37, -2.21007868647575378418e-01) (38, -5.89022576808929443359e-01) (39, -1.51155412197113037109e-01) (40, -1.98937989771366119385e-02) (41, -2.03755676746368408203e-01) (42, 1.47444874048233032227e-01) (43, 1.31784349679946899414e-01) (44, 8.82613807916641235352e-02) (45, 2.18481436371803283691e-01) (46, 4.28980082273483276367e-01) (47, 2.33431622385978698730e-01) (48, 1.90392166376113891602e-01) (49, 5.15618622303009033203e-02) (50, -8.77008020877838134766e-01) (34, -3.73097091913223266602e-01) (35, -9.46370363235473632812e-02) (36, 1.15130349993705749512e-01) (37, -1.41569525003433227539e-01) (38, -4.82125818729400634766e-01) (39, -3.21688503026962280273e-01) (40, -7.89341628551483154297e-02) (41, -1.42570927739143371582e-01) (42, 1.91893205046653747559e-01) (43, 1.17801852524280548096e-01) (44, 1.93112283945083618164e-01) (45, 1.42174512147903442383e-01) (46, 6.58212482929229736328e-01) (47, 1.77234813570976257324e-01) (48, 1.44309028983116149902e-01) (49, 2.55614072084426879883e-01) (50, -1.06245958805084228516e+00) (34, -4.64963972568511962891e-01) (35, 1.49011593312025070190e-02) (36, -5.58444671332836151123e-02) (37, -6.52153715491294860840e-02) (38, -6.66447043418884277344e-01) (39, -3.17964106798171997070e-01) (40, -3.43290418386459350586e-02) (41, -2.06537529826164245605e-01) (42, 3.08086752891540527344e-01) (43, 1.33866623044013977051e-01) (44, 1.11955270171165466309e-01) (45, 3.19834768772125244141e-01) (46, 6.55385315418243408203e-01) (47, 2.66418129205703735352e-01) (48, 6.68290331959724426270e-02) (49, 1.23028740286827087402e-01) (50, -9.50590193271636962891e-01) (34, -3.61390471458435058594e-01) (35, -1.54131427407264709473e-01) (36, -4.18439805507659912109e-02) (37, -2.24574014544486999512e-01) (38, -5.63802540302276611328e-01) (39, -3.06846678256988525391e-01) (40, -1.50568261742591857910e-01) (41, -2.02186733484268188477e-01) (42, 2.53262698650360107422e-01) (43, 1.74806207418441772461e-01) (44, 8.32617431879043579102e-02) (45, 2.73055464029312133789e-01) (46, 6.78937494754791259766e-01) (47, 1.35045334696769714355e-01) (48, 1.38856306672096252441e-01) (49, 2.58055150508880615234e-01) (50, -1.07456767559051513672e+00) (34, -1.39080405235290527344e-01) (35, -3.67512181401252746582e-02) (36, -9.65995527803897857666e-03) (37, -8.11033099889755249023e-02) (38, -3.74801814556121826172e-01) (39, -7.96694457530975341797e-02) (40, -1.15411661565303802490e-01) (41, 2.66499351710081100464e-02) (42, -2.63484939932823181152e-03) (43, 1.11705169081687927246e-01) (44, 2.71369982510805130005e-02) (45, 8.89318585395812988281e-02) (46, 4.14186000823974609375e-01) (47, 9.32806171476840972900e-03) (48, 6.68676048517227172852e-02) (49, 1.72303453087806701660e-01) (50, -7.51813530921936035156e-01) (34, -8.91169682145118713379e-02) (35, 6.43148347735404968262e-02) (36, -1.13466791808605194092e-01) (37, 3.43090295791625976562e-02) (38, -4.48816061019897460938e-01) (39, -1.00330814719200134277e-01) (40, -1.92831724882125854492e-01) (41, -1.33634597063064575195e-01) (42, 1.11322127282619476318e-01) (43, 3.24925151653587818146e-03) (44, 6.58196732401847839355e-02) (45, 1.36726066470146179199e-01) (46, 3.54124337434768676758e-01) (47, 9.55185443162918090820e-02) (48, 7.59873092174530029297e-02) (49, 3.43744866549968719482e-02) (50, -6.05895936489105224609e-01) 
